digraph Tree {
node [shape=box] ;
0 [label="X[20] <= 0.5\nentropy = 2.386\nsamples = 256\nvalue = [82, 31, 56, 40, 36, 11]"] ;
1 [label="X[32] <= 1.0\nentropy = 1.889\nsamples = 135\nvalue = [0, 26, 56, 40, 2, 11]"] ;
0 -> 1 [labeldistance=2.5, labelangle=45, headlabel="True"] ;
2 [label="X[30] <= 0.5\nentropy = 1.554\nsamples = 78\nvalue = [0, 25, 0, 40, 2, 11]"] ;
1 -> 2 ;
3 [label="X[4] <= 0.5\nentropy = 1.121\nsamples = 66\nvalue = [0, 24, 0, 40, 2, 0]"] ;
2 -> 3 ;
4 [label="X[25] <= 0.5\nentropy = 1.129\nsamples = 34\nvalue = [0, 23, 0, 9, 2, 0]"] ;
3 -> 4 ;
5 [label="X[14] <= 1.0\nentropy = 0.85\nsamples = 28\nvalue = [0, 23, 0, 3, 2, 0]"] ;
4 -> 5 ;
6 [label="X[3] <= 1.5\nentropy = 0.516\nsamples = 26\nvalue = [0, 23, 0, 3, 0, 0]"] ;
5 -> 6 ;
7 [label="X[31] <= 1.5\nentropy = 0.881\nsamples = 10\nvalue = [0, 7, 0, 3, 0, 0]"] ;
6 -> 7 ;
8 [label="entropy = 0.0\nsamples = 5\nvalue = [0, 5, 0, 0, 0, 0]"] ;
7 -> 8 ;
9 [label="X[0] <= 2.5\nentropy = 0.971\nsamples = 5\nvalue = [0, 2, 0, 3, 0, 0]"] ;
7 -> 9 ;
10 [label="entropy = 0.0\nsamples = 3\nvalue = [0, 0, 0, 3, 0, 0]"] ;
9 -> 10 ;
11 [label="entropy = 0.0\nsamples = 2\nvalue = [0, 2, 0, 0, 0, 0]"] ;
9 -> 11 ;
12 [label="entropy = 0.0\nsamples = 16\nvalue = [0, 16, 0, 0, 0, 0]"] ;
6 -> 12 ;
13 [label="entropy = 0.0\nsamples = 2\nvalue = [0, 0, 0, 0, 2, 0]"] ;
5 -> 13 ;
14 [label="entropy = 0.0\nsamples = 6\nvalue = [0, 0, 0, 6, 0, 0]"] ;
4 -> 14 ;
15 [label="X[13] <= 0.5\nentropy = 0.201\nsamples = 32\nvalue = [0, 1, 0, 31, 0, 0]"] ;
3 -> 15 ;
16 [label="entropy = 0.0\nsamples = 28\nvalue = [0, 0, 0, 28, 0, 0]"] ;
15 -> 16 ;
17 [label="X[33] <= 22.5\nentropy = 0.811\nsamples = 4\nvalue = [0, 1, 0, 3, 0, 0]"] ;
15 -> 17 ;
18 [label="entropy = 0.0\nsamples = 1\nvalue = [0, 1, 0, 0, 0, 0]"] ;
17 -> 18 ;
19 [label="entropy = 0.0\nsamples = 3\nvalue = [0, 0, 0, 3, 0, 0]"] ;
17 -> 19 ;
20 [label="X[17] <= 2.5\nentropy = 0.414\nsamples = 12\nvalue = [0, 1, 0, 0, 0, 11]"] ;
2 -> 20 ;
21 [label="entropy = 0.0\nsamples = 11\nvalue = [0, 0, 0, 0, 0, 11]"] ;
20 -> 21 ;
22 [label="entropy = 0.0\nsamples = 1\nvalue = [0, 1, 0, 0, 0, 0]"] ;
20 -> 22 ;
23 [label="X[28] <= 0.5\nentropy = 0.127\nsamples = 57\nvalue = [0, 1, 56, 0, 0, 0]"] ;
1 -> 23 ;
24 [label="X[32] <= 2.5\nentropy = 1.0\nsamples = 2\nvalue = [0, 1, 1, 0, 0, 0]"] ;
23 -> 24 ;
25 [label="entropy = 0.0\nsamples = 1\nvalue = [0, 1, 0, 0, 0, 0]"] ;
24 -> 25 ;
26 [label="entropy = 0.0\nsamples = 1\nvalue = [0, 0, 1, 0, 0, 0]"] ;
24 -> 26 ;
27 [label="entropy = 0.0\nsamples = 55\nvalue = [0, 0, 55, 0, 0, 0]"] ;
23 -> 27 ;
28 [label="X[14] <= 0.5\nentropy = 1.085\nsamples = 121\nvalue = [82, 5, 0, 0, 34, 0]"] ;
0 -> 28 [labeldistance=2.5, labelangle=-45, headlabel="False"] ;
29 [label="X[27] <= 0.5\nentropy = 0.317\nsamples = 87\nvalue = [82, 5, 0, 0, 0, 0]"] ;
28 -> 29 ;
30 [label="entropy = 0.0\nsamples = 82\nvalue = [82, 0, 0, 0, 0, 0]"] ;
29 -> 30 ;
31 [label="entropy = 0.0\nsamples = 5\nvalue = [0, 5, 0, 0, 0, 0]"] ;
29 -> 31 ;
32 [label="entropy = 0.0\nsamples = 34\nvalue = [0, 0, 0, 0, 34, 0]"] ;
28 -> 32 ;
}
